digraph Tree {
node [shape=box, style="filled, rounded", color="black", fontname="helvetica"] ;
edge [fontname="helvetica"] ;
0 [label=<region=rural &le; 0.5<br/>squared_error = 282.178<br/>samples = 1791<br/>value = 70.612>, fillcolor="#f2c29f"] ;
1 [label=<attendance(%) &le; 68.15<br/>squared_error = 291.665<br/>samples = 1093<br/>value = 71.559>, fillcolor="#f2bf9b"] ;
0 -> 1 [labeldistance=2.5, labelangle=45, headlabel="True"] ;
2 [label=<tutoring=yes &le; 0.5<br/>squared_error = 295.641<br/>samples = 380<br/>value = 65.936>, fillcolor="#f5cfb3"] ;
1 -> 2 ;
3 [label=<gender=female &le; 0.5<br/>squared_error = 240.7<br/>samples = 270<br/>value = 61.677>, fillcolor="#f7dac5"] ;
2 -> 3 ;
4 [label=<hoursstudied/week &le; 10.05<br/>squared_error = 225.832<br/>samples = 136<br/>value = 59.847>, fillcolor="#f8dfcd"] ;
3 -> 4 ;
5 [label=<attendance(%) &le; 60.2<br/>squared_error = 113.479<br/>samples = 80<br/>value = 50.905>, fillcolor="#fdf7f3"] ;
4 -> 5 ;
6 [label=<squared_error = 120.676<br/>samples = 40<br/>value = 48.1>, fillcolor="#ffffff"] ;
5 -> 6 ;
7 [label=<squared_error = 89.055<br/>samples = 40<br/>value = 53.844>, fillcolor="#fcefe7"] ;
5 -> 7 ;
8 [label=<squared_error = 74.674<br/>samples = 56<br/>value = 74.086>, fillcolor="#f0b990"] ;
4 -> 8 ;
9 [label=<attendance(%) &le; 60.55<br/>squared_error = 248.712<br/>samples = 134<br/>value = 63.447>, fillcolor="#f6d5be"] ;
3 -> 9 ;
10 [label=<squared_error = 237.115<br/>samples = 74<br/>value = 60.959>, fillcolor="#f8dcc8"] ;
9 -> 10 ;
11 [label=<squared_error = 245.173<br/>samples = 60<br/>value = 66.704>, fillcolor="#f5cdb0"] ;
9 -> 11 ;
12 [label=<attendance(%) &le; 58.4<br/>squared_error = 275.19<br/>samples = 110<br/>value = 76.51>, fillcolor="#efb286"] ;
2 -> 12 ;
13 [label=<squared_error = 310.094<br/>samples = 55<br/>value = 73.053>, fillcolor="#f1bb95"] ;
12 -> 13 ;
14 [label=<squared_error = 209.374<br/>samples = 55<br/>value = 80.304>, fillcolor="#eda876"] ;
12 -> 14 ;
15 [label=<attendance(%) &le; 90.05<br/>squared_error = 263.382<br/>samples = 713<br/>value = 74.583>, fillcolor="#f0b78e"] ;
1 -> 15 ;
16 [label=<hoursstudied/week &le; 9.45<br/>squared_error = 265.0<br/>samples = 471<br/>value = 73.2>, fillcolor="#f1bb94"] ;
15 -> 16 ;
17 [label=<hoursstudied/week &le; 5.65<br/>squared_error = 151.534<br/>samples = 216<br/>value = 59.72>, fillcolor="#f9e0ce"] ;
16 -> 17 ;
18 [label=<squared_error = 115.773<br/>samples = 67<br/>value = 48.174>, fillcolor="#ffffff"] ;
17 -> 18 ;
19 [label=<gender=male &le; 0.5<br/>squared_error = 77.322<br/>samples = 149<br/>value = 65.09>, fillcolor="#f6d1b7"] ;
17 -> 19 ;
20 [label=<squared_error = 75.611<br/>samples = 78<br/>value = 66.647>, fillcolor="#f5cdb0"] ;
19 -> 20 ;
21 [label=<squared_error = 74.24<br/>samples = 71<br/>value = 63.548>, fillcolor="#f6d5bd"] ;
19 -> 21 ;
22 [label=<tutoring=yes &le; 0.5<br/>squared_error = 103.351<br/>samples = 255<br/>value = 83.632>, fillcolor="#eb9f68"] ;
16 -> 22 ;
23 [label=<hoursstudied/week &le; 12.85<br/>squared_error = 81.744<br/>samples = 188<br/>value = 80.396>, fillcolor="#eda876"] ;
22 -> 23 ;
24 [label=<squared_error = 42.25<br/>samples = 99<br/>value = 74.086>, fillcolor="#f0b990"] ;
23 -> 24 ;
25 [label=<squared_error = 32.165<br/>samples = 89<br/>value = 87.412>, fillcolor="#e99558"] ;
23 -> 25 ;
26 [label=<squared_error = 48.741<br/>samples = 67<br/>value = 92.94>, fillcolor="#e68640"] ;
22 -> 26 ;
27 [label=<attendance(%) &le; 98.45<br/>squared_error = 250.387<br/>samples = 242<br/>value = 77.13>, fillcolor="#efb084"] ;
15 -> 27 ;
28 [label=<hoursstudied/week &le; 8.7<br/>squared_error = 229.481<br/>samples = 201<br/>value = 77.589>, fillcolor="#efaf82"] ;
27 -> 28 ;
29 [label=<squared_error = 108.195<br/>samples = 71<br/>value = 62.181>, fillcolor="#f7d9c3"] ;
28 -> 29 ;
30 [label=<parent_education=secondary &le; 0.5<br/>squared_error = 101.041<br/>samples = 130<br/>value = 85.764>, fillcolor="#ea995f"] ;
28 -> 30 ;
31 [label=<squared_error = 107.03<br/>samples = 81<br/>value = 84.7>, fillcolor="#eb9c63"] ;
30 -> 31 ;
32 [label=<squared_error = 84.527<br/>samples = 49<br/>value = 87.682>, fillcolor="#e99457"] ;
30 -> 32 ;
33 [label=<squared_error = 347.475<br/>samples = 41<br/>value = 74.864>, fillcolor="#f0b78d"] ;
27 -> 33 ;
34 [label=<tutoring=yes &le; 0.5<br/>squared_error = 263.584<br/>samples = 698<br/>value = 69.119>, fillcolor="#f3c6a6"] ;
0 -> 34 [labeldistance=2.5, labelangle=-45, headlabel="False"] ;
35 [label=<hoursstudied/week &le; 9.45<br/>squared_error = 215.316<br/>samples = 465<br/>value = 64.043>, fillcolor="#f6d4bb"] ;
34 -> 35 ;
36 [label=<parent_education=secondary &le; 0.5<br/>squared_error = 105.342<br/>samples = 224<br/>value = 52.79>, fillcolor="#fcf2eb"] ;
35 -> 36 ;
37 [label=<gender=male &le; 0.5<br/>squared_error = 115.86<br/>samples = 128<br/>value = 52.986>, fillcolor="#fcf2ea"] ;
36 -> 37 ;
38 [label=<squared_error = 92.365<br/>samples = 65<br/>value = 55.198>, fillcolor="#fbece1"] ;
37 -> 38 ;
39 [label=<squared_error = 130.823<br/>samples = 63<br/>value = 50.428>, fillcolor="#fef9f5"] ;
37 -> 39 ;
40 [label=<gender=male &le; 0.5<br/>squared_error = 89.067<br/>samples = 96<br/>value = 52.49>, fillcolor="#fdf3ec"] ;
36 -> 40 ;
41 [label=<squared_error = 70.119<br/>samples = 47<br/>value = 53.911>, fillcolor="#fcefe6"] ;
40 -> 41 ;
42 [label=<squared_error = 102.684<br/>samples = 49<br/>value = 51.208>, fillcolor="#fdf7f2"] ;
40 -> 42 ;
43 [label=<parent_education=secondary &le; 0.5<br/>squared_error = 100.035<br/>samples = 241<br/>value = 74.065>, fillcolor="#f0b991"] ;
35 -> 43 ;
44 [label=<gender=male &le; 0.5<br/>squared_error = 94.531<br/>samples = 154<br/>value = 74.182>, fillcolor="#f0b890"] ;
43 -> 44 ;
45 [label=<squared_error = 96.376<br/>samples = 79<br/>value = 74.952>, fillcolor="#f0b68d"] ;
44 -> 45 ;
46 [label=<squared_error = 91.649<br/>samples = 75<br/>value = 73.444>, fillcolor="#f1ba93"] ;
44 -> 46 ;
47 [label=<hoursstudied/week &le; 12.2<br/>squared_error = 108.852<br/>samples = 87<br/>value = 73.878>, fillcolor="#f1b991"] ;
43 -> 47 ;
48 [label=<squared_error = 48.363<br/>samples = 45<br/>value = 67.772>, fillcolor="#f4caab"] ;
47 -> 48 ;
49 [label=<squared_error = 78.804<br/>samples = 42<br/>value = 81.58>, fillcolor="#eca471"] ;
47 -> 49 ;
50 [label=<hoursstudied/week &le; 9.55<br/>squared_error = 204.65<br/>samples = 233<br/>value = 79.326>, fillcolor="#eeaa7a"] ;
34 -> 50 ;
51 [label=<gender=male &le; 0.5<br/>squared_error = 93.581<br/>samples = 104<br/>value = 67.331>, fillcolor="#f4cbad"] ;
50 -> 51 ;
52 [label=<squared_error = 114.537<br/>samples = 59<br/>value = 67.368>, fillcolor="#f4cbad"] ;
51 -> 52 ;
53 [label=<squared_error = 65.242<br/>samples = 45<br/>value = 67.28>, fillcolor="#f4cbad"] ;
51 -> 53 ;
54 [label=<hoursstudied/week &le; 12.25<br/>squared_error = 69.757<br/>samples = 129<br/>value = 89.653>, fillcolor="#e88f4e"] ;
50 -> 54 ;
55 [label=<squared_error = 42.063<br/>samples = 66<br/>value = 84.343>, fillcolor="#eb9d65"] ;
54 -> 55 ;
56 [label=<squared_error = 44.371<br/>samples = 63<br/>value = 94.644>, fillcolor="#e58139"] ;
54 -> 56 ;
}